{
  "module1": {
    "method": "Module1_Baseline",
    "weights": [
      [
        0.2837877823405329
      ],
      [
        -0.05058481164486051
      ],
      [
        -0.208304843959018
      ],
      [
        -0.18292632660325586
      ],
      [
        -0.008177985844592485
      ],
      [
        -0.0675865133626395
      ],
      [
        0.21897120482074905
      ],
      [
        -0.12038859096904926
      ],
      [
        0.34979905341710793
      ],
      [
        -0.15355137335132124
      ]
    ],
    "biases": [
      0.0,
      0.0,
      0.0,
      0.0,
      0.0,
      0.0,
      0.0,
      0.0,
      0.0,
      0.0
    ],
    "total_queries": 200,
    "total_time": 0.000625400003627874,
    "iterations": 1,
    "neurons_recovered": 10,
    "target_neurons": 10,
    "success": true
  },
  "module2": {
    "method": "Module2",
    "weights": [
      [
        0.2125407792485081,
        -0.058613649782962275,
        0.3176204005179452,
        -0.06326287075899654,
        0.18821785658300483,
        0.0861795561036575,
        -0.05834184162906048,
        -0.017868050254383996,
        0.08163206031207398,
        -0.009283410500910952
      ],
      [
        0.12374680799714881,
        -0.09047937518745543,
        -0.06952472819621344,
        0.49223070141555364,
        0.03119258412855995,
        -0.20242151240919312,
        -0.12422922156132143,
        0.4034831016809364,
        0.1309644547187308,
        0.25669397168074753
      ],
      [
        0.1760570719283051,
        0.04784215753601969,
        -0.02007963472285035,
        0.02178914754170904,
        -0.05979235625509873,
        -0.17685001914446027,
        -0.23284910114502014,
        0.04660330993262018,
        0.3455900567069984,
        -0.13664324243822298
      ],
      [
        0.48720956605953847,
        -0.4938209052848799,
        -0.5254312567345671,
        -0.2672862157820227,
        -0.10758116034263808,
        0.09368871729445694,
        -0.2839774168103185,
        0.4188333504319188,
        -0.11918851350616078,
        -0.11413402719389443
      ],
      [
        -0.014133766360107526,
        -0.49853349675831476,
        -0.24642825956544515,
        0.26876778827050796,
        -0.4487846261771781,
        0.24158231145871326,
        0.28597980812569357,
        -0.8418466154545032,
        -0.2697616902493905,
        -0.12867653652571898
      ],
      [
        -0.09182264713415253,
        -0.22674340296778564,
        0.1058440578932347,
        -0.407023301672533,
        -0.18085483927937188,
        0.36686589259974184,
        0.34562748195982695,
        0.24617585194727412,
        -0.09962824299775376,
        -0.49460919482168053
      ],
      [
        0.5179927222199874,
        -0.3176672474804304,
        -0.3119264038275951,
        0.08326111189200405,
        -0.14884985075465496,
        -0.18899890984181772,
        -0.05465116819689463,
        0.04690254234731425,
        0.30111499368899475,
        0.06923438169850225
      ],
      [
        0.24623361326237825,
        0.07299778437870762,
        0.22289581804444597,
        -0.6820638788504859,
        0.4345359788955438,
        -0.05979243728191931,
        0.21604363810521696,
        -0.0348164357839403,
        0.1281260648120044,
        0.03691508428171134
      ],
      [
        -0.15480100242097317,
        -0.2703233105805011,
        -0.08809027285130748,
        -0.37084721054873326,
        0.19721592962967974,
        0.15522695599762681,
        0.058807794240771205,
        0.07975182027052405,
        -0.18859490893816,
        -0.006765468112806266
      ],
      [
        0.20566450654620394,
        -0.41288948189354674,
        -0.17280486334823913,
        0.05950803399679119,
        -0.5056484576368522,
        0.25700369926320366,
        -0.18063640108964757,
        -0.6478274552732427,
        0.18129185216368676,
        -0.0572330634056918
      ]
    ],
    "biases": [
      0.0,
      0.0,
      0.0,
      0.0,
      0.0,
      0.0,
      0.0,
      0.0,
      0.0,
      0.0
    ],
    "total_queries": 130,
    "iterations": 10,
    "neurons_recovered": 10,
    "target_neurons": 10,
    "success": true,
    "total_time": 1.6605833999929018,
    "total_iterations": 10
  },
  "improvements": {
    "queries": 35.0,
    "time": -265423.4074768224,
    "iterations": -900.0
  }
}